digraph Tree {
node [shape=box, style="filled, rounded", color="black", fontname=helvetica] ;
edge [fontname=helvetica] ;
0 [label="node #0\nhue <= 0.785\ngini = 0.6483\nsamples = 100.0%\nvalue = [0.2809, 0.4438, 0.2753]", fillcolor="#d2f9e2"] ;
1 [label="node #1\nproanthocyanins <= 2.805\ngini = 0.142\nsamples = 23.9%\nvalue = [0.0, 0.0769, 0.9231]", fillcolor="#8c49e7"] ;
0 -> 1 [labeldistance=2.5, labelangle=45, headlabel="True"] ;
2 [label="node #2\nalcalinity_of_ash <= 16.75\ngini = 0.0526\nsamples = 22.2%\nvalue = [0.0, 0.027, 0.973]", fillcolor="#843ee6"] ;
1 -> 2 ;
3 [label="node #3\ngini = 0.0\nsamples = 0.9%\nvalue = [0.0, 1.0, 0.0]", fillcolor="#39e581"] ;
2 -> 3 ;
4 [label="node #4\ngini = 0.0\nsamples = 21.4%\nvalue = [0.0, 0.0, 1.0]", fillcolor="#8139e5"] ;
2 -> 4 ;
5 [label="node #5\ngini = 0.0\nsamples = 1.7%\nvalue = [0.0, 1.0, 0.0]", fillcolor="#39e581"] ;
1 -> 5 ;
6 [label="node #6\nalcohol <= 12.77\ngini = 0.5629\nsamples = 76.1%\nvalue = [0.3597, 0.5468, 0.0935]", fillcolor="#c5f7da"] ;
0 -> 6 [labeldistance=2.5, labelangle=-45, headlabel="False"] ;
7 [label="node #7\nhue <= 0.84\ngini = 0.0294\nsamples = 35.0%\nvalue = [0.0, 0.9851, 0.0149]", fillcolor="#3ce583"] ;
6 -> 7 ;
8 [label="node #8\nod280/od315_of_diluted_wines <= 2.13\ngini = 0.4444\nsamples = 2.6%\nvalue = [0.0, 0.6667, 0.3333]", fillcolor="#9cf2c0"] ;
7 -> 8 ;
9 [label="node #9\ngini = 0.0\nsamples = 0.9%\nvalue = [0.0, 0.0, 1.0]", fillcolor="#8139e5"] ;
8 -> 9 ;
10 [label="node #10\ngini = 0.0\nsamples = 1.7%\nvalue = [0.0, 1.0, 0.0]", fillcolor="#39e581"] ;
8 -> 10 ;
11 [label="node #11\ngini = 0.0\nsamples = 32.5%\nvalue = [0.0, 1.0, 0.0]", fillcolor="#39e581"] ;
7 -> 11 ;
12 [label="node #12\nnonflavanoid_phenols <= 0.415\ngini = 0.4707\nsamples = 41.0%\nvalue = [0.6944, 0.1389, 0.1667]", fillcolor="#efaf82"] ;
6 -> 12 ;
13 [label="node #13\nmagnesium <= 88.0\ngini = 0.2293\nsamples = 33.3%\nvalue = [0.8679, 0.1321, 0.0]", fillcolor="#e99457"] ;
12 -> 13 ;
14 [label="node #14\ngini = 0.0\nsamples = 3.4%\nvalue = [0.0, 1.0, 0.0]", fillcolor="#39e581"] ;
13 -> 14 ;
15 [label="node #15\nnonflavanoid_phenols <= 0.215\ngini = 0.0799\nsamples = 29.9%\nvalue = [0.9583, 0.0417, 0.0]", fillcolor="#e68642"] ;
13 -> 15 ;
16 [label="node #16\ncolor_intensity <= 4.225\ngini = 0.4444\nsamples = 3.4%\nvalue = [0.6667, 0.3333, 0.0]", fillcolor="#f2c09c"] ;
15 -> 16 ;
17 [label="node #17\ngini = 0.0\nsamples = 0.9%\nvalue = [0.0, 1.0, 0.0]", fillcolor="#39e581"] ;
16 -> 17 ;
18 [label="node #18\ngini = 0.0\nsamples = 2.6%\nvalue = [1.0, 0.0, 0.0]", fillcolor="#e58139"] ;
16 -> 18 ;
19 [label="node #19\ngini = 0.0\nsamples = 26.5%\nvalue = [1.0, 0.0, 0.0]", fillcolor="#e58139"] ;
15 -> 19 ;
20 [label="node #20\nhue <= 1.075\ngini = 0.5319\nsamples = 7.7%\nvalue = [0.2105, 0.1579, 0.6316]", fillcolor="#bc95f1"] ;
12 -> 20 ;
21 [label="node #21\ncolor_intensity <= 3.76\ngini = 0.32\nsamples = 6.0%\nvalue = [0.0, 0.2, 0.8]", fillcolor="#a06aec"] ;
20 -> 21 ;
22 [label="node #22\ngini = 0.0\nsamples = 0.9%\nvalue = [0.0, 1.0, 0.0]", fillcolor="#39e581"] ;
21 -> 22 ;
23 [label="node #23\nproline <= 517.5\ngini = 0.2449\nsamples = 5.1%\nvalue = [0.0, 0.1429, 0.8571]", fillcolor="#965ae9"] ;
21 -> 23 ;
24 [label="node #24\ngini = 0.0\nsamples = 0.9%\nvalue = [0.0, 1.0, 0.0]", fillcolor="#39e581"] ;
23 -> 24 ;
25 [label="node #25\ngini = 0.0\nsamples = 4.3%\nvalue = [0.0, 0.0, 1.0]", fillcolor="#8139e5"] ;
23 -> 25 ;
26 [label="node #26\ngini = 0.0\nsamples = 1.7%\nvalue = [1.0, 0.0, 0.0]", fillcolor="#e58139"] ;
20 -> 26 ;
}