digraph Tree {
node [shape=box, style="filled, rounded", color="black", fontname=helvetica] ;
edge [fontname=helvetica] ;
0 [label="node #0\nflavanoids <= 0.955\ngini = 0.6538\nsamples = 100.0%\nvalue = [0.3146, 0.4213, 0.264]", fillcolor="#e0fbeb"] ;
1 [label="node #1\ncolor_intensity <= 2.9\ngini = 0.1219\nsamples = 25.4%\nvalue = [0.0, 0.0652, 0.9348]", fillcolor="#8a47e7"] ;
0 -> 1 [labeldistance=2.5, labelangle=45, headlabel="True"] ;
2 [label="node #2\ngini = 0.0\nsamples = 0.9%\nvalue = [0.0, 1.0, 0.0]", fillcolor="#39e581"] ;
1 -> 2 ;
3 [label="node #3\ngini = 0.0\nsamples = 24.6%\nvalue = [0.0, 0.0, 1.0]", fillcolor="#8139e5"] ;
1 -> 3 ;
4 [label="node #4\nproline <= 755.0\ngini = 0.5216\nsamples = 74.6%\nvalue = [0.4242, 0.5455, 0.0303]", fillcolor="#d5fae4"] ;
0 -> 4 [labeldistance=2.5, labelangle=-45, headlabel="False"] ;
5 [label="node #5\nod280/od315_of_diluted_wines <= 1.475\ngini = 0.1325\nsamples = 40.4%\nvalue = [0.0141, 0.9296, 0.0563]", fillcolor="#48e78a"] ;
4 -> 5 ;
6 [label="node #6\ngini = 0.0\nsamples = 2.6%\nvalue = [0.0, 0.0, 1.0]", fillcolor="#8139e5"] ;
5 -> 6 ;
7 [label="node #7\nflavanoids <= 1.175\ngini = 0.0575\nsamples = 37.7%\nvalue = [0.0147, 0.9706, 0.0147]", fillcolor="#3fe685"] ;
5 -> 7 ;
8 [label="node #8\nmagnesium <= 95.0\ngini = 0.375\nsamples = 2.6%\nvalue = [0.0, 0.75, 0.25]", fillcolor="#7beeab"] ;
7 -> 8 ;
9 [label="node #9\ngini = 0.0\nsamples = 0.9%\nvalue = [0.0, 0.0, 1.0]", fillcolor="#8139e5"] ;
8 -> 9 ;
10 [label="node #10\ngini = 0.0\nsamples = 1.8%\nvalue = [0.0, 1.0, 0.0]", fillcolor="#39e581"] ;
8 -> 10 ;
11 [label="node #11\nmagnesium <= 102.5\ngini = 0.0308\nsamples = 35.1%\nvalue = [0.0156, 0.9844, 0.0]", fillcolor="#3ce583"] ;
7 -> 11 ;
12 [label="node #12\ngini = 0.0\nsamples = 31.6%\nvalue = [0.0, 1.0, 0.0]", fillcolor="#39e581"] ;
11 -> 12 ;
13 [label="node #13\nmalic_acid <= 3.33\ngini = 0.2449\nsamples = 3.5%\nvalue = [0.1429, 0.8571, 0.0]", fillcolor="#5ae996"] ;
11 -> 13 ;
14 [label="node #14\ngini = 0.0\nsamples = 2.6%\nvalue = [0.0, 1.0, 0.0]", fillcolor="#39e581"] ;
13 -> 14 ;
15 [label="node #15\ngini = 0.0\nsamples = 0.9%\nvalue = [1.0, 0.0, 0.0]", fillcolor="#e58139"] ;
13 -> 15 ;
16 [label="node #16\ncolor_intensity <= 3.435\ngini = 0.1774\nsamples = 34.2%\nvalue = [0.9016, 0.0984, 0.0]", fillcolor="#e88f4f"] ;
4 -> 16 ;
17 [label="node #17\ngini = 0.0\nsamples = 3.5%\nvalue = [0.0, 1.0, 0.0]", fillcolor="#39e581"] ;
16 -> 17 ;
18 [label="node #18\ngini = 0.0\nsamples = 30.7%\nvalue = [1.0, 0.0, 0.0]", fillcolor="#e58139"] ;
16 -> 18 ;
}