digraph Tree {
node [shape=box, style="filled, rounded", color="black", fontname=helvetica] ;
edge [fontname=helvetica] ;
0 [label="node #0\nhue <= 0.855\ngini = 0.6661\nsamples = 100.0%\nvalue = [0.3483, 0.3371, 0.3146]", fillcolor="#fffdfc"] ;
1 [label="node #1\nproanthocyanins <= 1.59\ngini = 0.255\nsamples = 32.2%\nvalue = [0.0, 0.15, 0.85]", fillcolor="#975cea"] ;
0 -> 1 [labeldistance=2.5, labelangle=45, headlabel="True"] ;
2 [label="node #2\nmagnesium <= 82.5\ngini = 0.0768\nsamples = 25.2%\nvalue = [0.0, 0.04, 0.96]", fillcolor="#8641e6"] ;
1 -> 2 ;
3 [label="node #3\ngini = 0.0\nsamples = 0.9%\nvalue = [0.0, 1.0, 0.0]", fillcolor="#39e581"] ;
2 -> 3 ;
4 [label="node #4\nod280/od315_of_diluted_wines <= 2.925\ngini = 0.04\nsamples = 24.3%\nvalue = [0.0, 0.0204, 0.9796]", fillcolor="#843de6"] ;
2 -> 4 ;
5 [label="node #5\ngini = 0.0\nsamples = 23.5%\nvalue = [0.0, 0.0, 1.0]", fillcolor="#8139e5"] ;
4 -> 5 ;
6 [label="node #6\ngini = 0.0\nsamples = 0.9%\nvalue = [0.0, 1.0, 0.0]", fillcolor="#39e581"] ;
4 -> 6 ;
7 [label="node #7\nalcohol <= 13.14\ngini = 0.42\nsamples = 7.0%\nvalue = [0.0, 0.7, 0.3]", fillcolor="#8ef0b7"] ;
1 -> 7 ;
8 [label="node #8\ngini = 0.0\nsamples = 4.3%\nvalue = [0.0, 1.0, 0.0]", fillcolor="#39e581"] ;
7 -> 8 ;
9 [label="node #9\ngini = 0.0\nsamples = 2.6%\nvalue = [0.0, 0.0, 1.0]", fillcolor="#8139e5"] ;
7 -> 9 ;
10 [label="node #10\nflavanoids <= 2.33\ngini = 0.5353\nsamples = 67.8%\nvalue = [0.5254, 0.4322, 0.0424]", fillcolor="#fbeade"] ;
0 -> 10 [labeldistance=2.5, labelangle=-45, headlabel="False"] ;
11 [label="node #11\nod280/od315_of_diluted_wines <= 2.19\ngini = 0.1975\nsamples = 28.7%\nvalue = [0.0, 0.8889, 0.1111]", fillcolor="#52e891"] ;
10 -> 11 ;
12 [label="node #12\nalcalinity_of_ash <= 21.35\ngini = 0.5\nsamples = 6.1%\nvalue = [0.0, 0.5, 0.5]", fillcolor="#ffffff"] ;
11 -> 12 ;
13 [label="node #13\nmagnesium <= 105.0\ngini = 0.4082\nsamples = 3.5%\nvalue = [0.0, 0.7143, 0.2857]", fillcolor="#88efb3"] ;
12 -> 13 ;
14 [label="node #14\ngini = 0.0\nsamples = 2.6%\nvalue = [0.0, 1.0, 0.0]", fillcolor="#39e581"] ;
13 -> 14 ;
15 [label="node #15\ngini = 0.0\nsamples = 0.9%\nvalue = [0.0, 0.0, 1.0]", fillcolor="#8139e5"] ;
13 -> 15 ;
16 [label="node #16\ngini = 0.0\nsamples = 2.6%\nvalue = [0.0, 0.0, 1.0]", fillcolor="#8139e5"] ;
12 -> 16 ;
17 [label="node #17\ngini = 0.0\nsamples = 22.6%\nvalue = [0.0, 1.0, 0.0]", fillcolor="#39e581"] ;
11 -> 17 ;
18 [label="node #18\nalcohol <= 12.61\ngini = 0.256\nsamples = 39.1%\nvalue = [0.8493, 0.1507, 0.0]", fillcolor="#ea975c"] ;
10 -> 18 ;
19 [label="node #19\ngini = 0.0\nsamples = 4.3%\nvalue = [0.0, 1.0, 0.0]", fillcolor="#39e581"] ;
18 -> 19 ;
20 [label="node #20\ncolor_intensity <= 3.435\ngini = 0.0605\nsamples = 34.8%\nvalue = [0.9688, 0.0312, 0.0]", fillcolor="#e6853f"] ;
18 -> 20 ;
21 [label="node #21\ngini = 0.0\nsamples = 0.9%\nvalue = [0.0, 1.0, 0.0]", fillcolor="#39e581"] ;
20 -> 21 ;
22 [label="node #22\nash <= 1.87\ngini = 0.0312\nsamples = 33.9%\nvalue = [0.9841, 0.0159, 0.0]", fillcolor="#e5833c"] ;
20 -> 22 ;
23 [label="node #23\ngini = 0.0\nsamples = 0.9%\nvalue = [0.0, 1.0, 0.0]", fillcolor="#39e581"] ;
22 -> 23 ;
24 [label="node #24\ngini = 0.0\nsamples = 33.0%\nvalue = [1.0, 0.0, 0.0]", fillcolor="#e58139"] ;
22 -> 24 ;
}